#pragma once

#ifndef WHEEL_LEGGED_ROBOT_VARIANT
#define WHEEL_LEGGED_ROBOT_VARIANT 2
#endif

namespace wheel_legged::params::generated {

constexpr float kThetaBiasLlHero[50][2] = {
    {0.160000f, -0.01100000f},
    {0.162857f, -0.01128571f},
    {0.165714f, -0.01157143f},
    {0.168571f, -0.01185714f},
    {0.171429f, -0.01214286f},
    {0.174286f, -0.01242857f},
    {0.177143f, -0.01271429f},
    {0.180000f, -0.01300000f},
    {0.182857f, -0.01328571f},
    {0.185714f, -0.01357143f},
    {0.188571f, -0.01385714f},
    {0.191429f, -0.01414286f},
    {0.194286f, -0.01442857f},
    {0.197143f, -0.01471429f},
    {0.200000f, -0.01500000f},
    {0.202857f, -0.01542857f},
    {0.205714f, -0.01585714f},
    {0.208571f, -0.01628571f},
    {0.211429f, -0.01671429f},
    {0.214286f, -0.01714286f},
    {0.217143f, -0.01757143f},
    {0.220000f, -0.01800000f},
    {0.222857f, -0.01885714f},
    {0.225714f, -0.01971429f},
    {0.228571f, -0.02057143f},
    {0.231429f, -0.02142857f},
    {0.234286f, -0.02228571f},
    {0.237143f, -0.02314286f},
    {0.240000f, -0.02400000f},
    {0.242857f, -0.02485714f},
    {0.245714f, -0.02571429f},
    {0.248571f, -0.02657143f},
    {0.251429f, -0.02742857f},
    {0.254286f, -0.02828571f},
    {0.257143f, -0.02914286f},
    {0.260000f, -0.03000000f},
    {0.262857f, -0.03042857f},
    {0.265714f, -0.03085714f},
    {0.268571f, -0.03128571f},
    {0.271429f, -0.03171429f},
    {0.274286f, -0.03214286f},
    {0.277143f, -0.03257143f},
    {0.280000f, -0.03300000f},
    {0.282857f, -0.03371429f},
    {0.285714f, -0.03442857f},
    {0.288571f, -0.03514286f},
    {0.291429f, -0.03585714f},
    {0.294286f, -0.03657143f},
    {0.297143f, -0.03728571f},
    {0.300000f, -0.03800000f},
};

constexpr float kThetaBiasLrHero[50][2] = {
    {0.160000f, -0.01100000f},
    {0.162857f, -0.01128571f},
    {0.165714f, -0.01157143f},
    {0.168571f, -0.01185714f},
    {0.171429f, -0.01214286f},
    {0.174286f, -0.01242857f},
    {0.177143f, -0.01271429f},
    {0.180000f, -0.01300000f},
    {0.182857f, -0.01328571f},
    {0.185714f, -0.01357143f},
    {0.188571f, -0.01385714f},
    {0.191429f, -0.01414286f},
    {0.194286f, -0.01442857f},
    {0.197143f, -0.01471429f},
    {0.200000f, -0.01500000f},
    {0.202857f, -0.01542857f},
    {0.205714f, -0.01585714f},
    {0.208571f, -0.01628571f},
    {0.211429f, -0.01671429f},
    {0.214286f, -0.01714286f},
    {0.217143f, -0.01757143f},
    {0.220000f, -0.01800000f},
    {0.222857f, -0.01885714f},
    {0.225714f, -0.01971429f},
    {0.228571f, -0.02057143f},
    {0.231429f, -0.02142857f},
    {0.234286f, -0.02228571f},
    {0.237143f, -0.02314286f},
    {0.240000f, -0.02400000f},
    {0.242857f, -0.02485714f},
    {0.245714f, -0.02571429f},
    {0.248571f, -0.02657143f},
    {0.251429f, -0.02742857f},
    {0.254286f, -0.02828571f},
    {0.257143f, -0.02914286f},
    {0.260000f, -0.03000000f},
    {0.262857f, -0.03042857f},
    {0.265714f, -0.03085714f},
    {0.268571f, -0.03128571f},
    {0.271429f, -0.03171429f},
    {0.274286f, -0.03214286f},
    {0.277143f, -0.03257143f},
    {0.280000f, -0.03300000f},
    {0.282857f, -0.03371429f},
    {0.285714f, -0.03442857f},
    {0.288571f, -0.03514286f},
    {0.291429f, -0.03585714f},
    {0.294286f, -0.03657143f},
    {0.297143f, -0.03728571f},
    {0.300000f, -0.03800000f},
};

constexpr float kThetaBiasLlInfantry3[50][2] = {
    {0.160000f, -0.01100000f},
    {0.163673f, -0.01136735f},
    {0.167347f, -0.01173469f},
    {0.171020f, -0.01210204f},
    {0.174694f, -0.01246939f},
    {0.178367f, -0.01283673f},
    {0.182041f, -0.01320408f},
    {0.185714f, -0.01357143f},
    {0.189388f, -0.01393878f},
    {0.193061f, -0.01430612f},
    {0.196735f, -0.01467347f},
    {0.200408f, -0.01506122f},
    {0.204082f, -0.01561224f},
    {0.207755f, -0.01616327f},
    {0.211429f, -0.01671429f},
    {0.215102f, -0.01726531f},
    {0.218776f, -0.01781633f},
    {0.222449f, -0.01861224f},
    {0.226122f, -0.01953061f},
    {0.229796f, -0.02044898f},
    {0.233469f, -0.02136735f},
    {0.237143f, -0.02228571f},
    {0.240816f, -0.02320408f},
    {0.244490f, -0.02412245f},
    {0.248163f, -0.02504082f},
    {0.251837f, -0.02595918f},
    {0.255510f, -0.02687755f},
    {0.259184f, -0.02779592f},
    {0.262857f, -0.02871429f},
    {0.266531f, -0.02963265f},
    {0.270204f, -0.03055102f},
    {0.273878f, -0.03146939f},
    {0.277551f, -0.03238776f},
    {0.281224f, -0.03330612f},
    {0.284898f, -0.03422449f},
    {0.288571f, -0.03514286f},
    {0.292245f, -0.03606122f},
    {0.295918f, -0.03697959f},
    {0.299592f, -0.03789796f},
    {0.303265f, -0.03832653f},
    {0.306939f, -0.03869388f},
    {0.310612f, -0.03906122f},
    {0.314286f, -0.03942857f},
    {0.317959f, -0.03979592f},
    {0.321633f, -0.04040816f},
    {0.325306f, -0.04132653f},
    {0.328980f, -0.04224490f},
    {0.332653f, -0.04316327f},
    {0.336327f, -0.04408163f},
    {0.340000f, -0.04500000f},
};

constexpr float kThetaBiasLrInfantry3[50][2] = {
    {0.160000f, -0.01100000f},
    {0.163673f, -0.01136735f},
    {0.167347f, -0.01173469f},
    {0.171020f, -0.01210204f},
    {0.174694f, -0.01246939f},
    {0.178367f, -0.01283673f},
    {0.182041f, -0.01320408f},
    {0.185714f, -0.01357143f},
    {0.189388f, -0.01393878f},
    {0.193061f, -0.01430612f},
    {0.196735f, -0.01467347f},
    {0.200408f, -0.01506122f},
    {0.204082f, -0.01561224f},
    {0.207755f, -0.01616327f},
    {0.211429f, -0.01671429f},
    {0.215102f, -0.01726531f},
    {0.218776f, -0.01781633f},
    {0.222449f, -0.01861224f},
    {0.226122f, -0.01953061f},
    {0.229796f, -0.02044898f},
    {0.233469f, -0.02136735f},
    {0.237143f, -0.02228571f},
    {0.240816f, -0.02320408f},
    {0.244490f, -0.02412245f},
    {0.248163f, -0.02504082f},
    {0.251837f, -0.02595918f},
    {0.255510f, -0.02687755f},
    {0.259184f, -0.02779592f},
    {0.262857f, -0.02871429f},
    {0.266531f, -0.02963265f},
    {0.270204f, -0.03055102f},
    {0.273878f, -0.03146939f},
    {0.277551f, -0.03238776f},
    {0.281224f, -0.03330612f},
    {0.284898f, -0.03422449f},
    {0.288571f, -0.03514286f},
    {0.292245f, -0.03606122f},
    {0.295918f, -0.03697959f},
    {0.299592f, -0.03789796f},
    {0.303265f, -0.03832653f},
    {0.306939f, -0.03869388f},
    {0.310612f, -0.03906122f},
    {0.314286f, -0.03942857f},
    {0.317959f, -0.03979592f},
    {0.321633f, -0.04040816f},
    {0.325306f, -0.04132653f},
    {0.328980f, -0.04224490f},
    {0.332653f, -0.04316327f},
    {0.336327f, -0.04408163f},
    {0.340000f, -0.04500000f},
};

constexpr float kThetaBiasLlInfantry4[50][2] = {
    {0.160000f, -0.05000000f},
    {0.163469f, -0.04783163f},
    {0.166939f, -0.04566327f},
    {0.170408f, -0.04349490f},
    {0.173878f, -0.04132653f},
    {0.177347f, -0.03915816f},
    {0.180816f, -0.03698980f},
    {0.184286f, -0.03482143f},
    {0.187755f, -0.03265306f},
    {0.191224f, -0.03048469f},
    {0.194694f, -0.02831633f},
    {0.198163f, -0.02614796f},
    {0.201633f, -0.02397959f},
    {0.205102f, -0.02181122f},
    {0.208571f, -0.01964286f},
    {0.212041f, -0.01747449f},
    {0.215510f, -0.01530612f},
    {0.218980f, -0.01313776f},
    {0.222449f, -0.01096939f},
    {0.225918f, -0.00880102f},
    {0.229388f, -0.00663265f},
    {0.232857f, -0.00446429f},
    {0.236327f, -0.00229592f},
    {0.239796f, -0.00012755f},
    {0.243265f, 0.00072562f},
    {0.246735f, 0.00149660f},
    {0.250204f, 0.00226757f},
    {0.253673f, 0.00303855f},
    {0.257143f, 0.00380952f},
    {0.260612f, 0.00458050f},
    {0.264082f, 0.00535147f},
    {0.267551f, 0.00612245f},
    {0.271020f, 0.00689342f},
    {0.274490f, 0.00766440f},
    {0.277959f, 0.00843537f},
    {0.281429f, 0.00920635f},
    {0.284898f, 0.00997732f},
    {0.288367f, 0.01074830f},
    {0.291837f, 0.01151927f},
    {0.295306f, 0.01229025f},
    {0.298776f, 0.01306122f},
    {0.302245f, 0.01383220f},
    {0.305714f, 0.01460317f},
    {0.309184f, 0.01537415f},
    {0.312653f, 0.01614512f},
    {0.316122f, 0.01691610f},
    {0.319592f, 0.01768707f},
    {0.323061f, 0.01845805f},
    {0.326531f, 0.01922902f},
    {0.330000f, 0.02000000f},
};

constexpr float kThetaBiasLrInfantry4[50][2] = {
    {0.160000f, -0.05000000f},
    {0.163469f, -0.04783163f},
    {0.166939f, -0.04566327f},
    {0.170408f, -0.04349490f},
    {0.173878f, -0.04132653f},
    {0.177347f, -0.03915816f},
    {0.180816f, -0.03698980f},
    {0.184286f, -0.03482143f},
    {0.187755f, -0.03265306f},
    {0.191224f, -0.03048469f},
    {0.194694f, -0.02831633f},
    {0.198163f, -0.02614796f},
    {0.201633f, -0.02397959f},
    {0.205102f, -0.02181122f},
    {0.208571f, -0.01964286f},
    {0.212041f, -0.01747449f},
    {0.215510f, -0.01530612f},
    {0.218980f, -0.01313776f},
    {0.222449f, -0.01096939f},
    {0.225918f, -0.00880102f},
    {0.229388f, -0.00663265f},
    {0.232857f, -0.00446429f},
    {0.236327f, -0.00229592f},
    {0.239796f, -0.00012755f},
    {0.243265f, 0.00072562f},
    {0.246735f, 0.00149660f},
    {0.250204f, 0.00226757f},
    {0.253673f, 0.00303855f},
    {0.257143f, 0.00380952f},
    {0.260612f, 0.00458050f},
    {0.264082f, 0.00535147f},
    {0.267551f, 0.00612245f},
    {0.271020f, 0.00689342f},
    {0.274490f, 0.00766440f},
    {0.277959f, 0.00843537f},
    {0.281429f, 0.00920635f},
    {0.284898f, 0.00997732f},
    {0.288367f, 0.01074830f},
    {0.291837f, 0.01151927f},
    {0.295306f, 0.01229025f},
    {0.298776f, 0.01306122f},
    {0.302245f, 0.01383220f},
    {0.305714f, 0.01460317f},
    {0.309184f, 0.01537415f},
    {0.312653f, 0.01614512f},
    {0.316122f, 0.01691610f},
    {0.319592f, 0.01768707f},
    {0.323061f, 0.01845805f},
    {0.326531f, 0.01922902f},
    {0.330000f, 0.02000000f},
};

#if WHEEL_LEGGED_ROBOT_VARIANT == 1
static constexpr const auto &kThetaBiasLl = kThetaBiasLlHero;
static constexpr const auto &kThetaBiasLr = kThetaBiasLrHero;
#elif WHEEL_LEGGED_ROBOT_VARIANT == 2
static constexpr const auto &kThetaBiasLl = kThetaBiasLlInfantry3;
static constexpr const auto &kThetaBiasLr = kThetaBiasLrInfantry3;
#elif WHEEL_LEGGED_ROBOT_VARIANT == 3
static constexpr const auto &kThetaBiasLl = kThetaBiasLlInfantry4;
static constexpr const auto &kThetaBiasLr = kThetaBiasLrInfantry4;
#else
#error "WHEEL_LEGGED_ROBOT_VARIANT must be 1, 2, or 3"
#endif

}  // namespace wheel_legged::params::generated

